-0.0198195 -0.0152915 -0.01004 -0.0417967 -0.0326645 -0.0164904 0.0391673 -0.00401824 0.064822 0.0139258 0.00367476 -0.0163467 0.00294534 0.0310039 -0.00784506 0.0426358 -0.0217081 0.00569988 0.0346539 -0.0375771 -0.00627075 0.0154123 -0.000331319 -0.0144832 0.0767853 0.0333241 -0.00602237 0.0476964 -0.00283278 -0.0156242 -0.0541584 -0.0112351 0.0299299 0.0285314 0.0121099 0.0477846 0.0213678 -0.000608693 -0.0125731 -0.0058578 -0.0265186 -0.0117567 -0.0545316 -0.0256675 -0.0376289 0.000838808 -0.00853619 0.0350935 0.0389587 -0.0120411 0.0257979 0.015815 -0.0104772 0.00851931 0.00331109 -0.00902167 -0.029533 0.0127034 0.0188415 -0.0344575 0.0316562 -0.00554492 -0.0213295 -0.0472207 -0.0395223 0.0339661 0.0341991 -0.0347653 -0.00225922 0.0317704 0.0271471 -0.0476655 0.0359644 0.00015385 0.0506725 -0.00625955 -0.0373306 -0.0117012 0.0169232 -0.0375506 0.00920669 0.0305486 -0.0260358 -0.0118906 -0.0158645 0.0081728 -0.0281108 0.0674176 0.0392161 -0.0174136 -0.0173071 0.016495 0.043482 -0.0389556 0.0306795 -0.0183568 0.0311739 -0.0334911 -0.0609034 -0.0304434 -0.0037241 -0.0112702 0.0293449 -0.0599274 0.00319596 0.0262057 -0.00926675 0.0199817 0.0384507 0.010496 0.0418677 -0.028432 -0.00459705 -0.00149157 -0.0616296 0.0255575 0.000992661 0.00380334 0.0275881 0.0590138 0.00338206 -0.0207876 -0.0133051 0.00526475 -0.0306843 -0.0131598 -0.0260195 0.0159034 -0.00627117 0.0216194 0.032099 0.0540516 -0.00928795 -0.0162069 -0.0188634 -0.0110887 0.0413124 0.0210237 -0.0170997 0.00486079 0.00172118 0.0488653 -0.0153187 0.00905392 0.0259271 -0.00603965 -0.0124253 -0.0191171 -0.00819883 -0.0185265 0.0110524 0.0409837 0.00574974 0.00485232 -0.00503272 -0.00732702 0.0104787 -0.00830858 0.052015 -0.00940458 -0.0157589 -0.00854313 -6.92451e-06 0.00384122 0.00976034 -0.0212848 -0.0408457 0.0694419 -0.0413376 0.00165106 0.0177078 -0.0378962 -0.05501 0.00858473 -0.00439415 -0.0308438 -0.0101685 0.0149233 -0.0118493 0.0125625 0.0255473 -0.018201 -0.00901752 -0.00624988 -0.0287418 -0.0150482 -0.0318204 -0.0105999 -0.0466952 -0.0595098 0.010822 -0.0425013 0.00448524 0.0108134 -0.0268267 -0.0475099 0.0487567 0.0304564 0.0531052 -0.0320068 0.000385492 0.0530044 -0.0303699 0.00277369 0.0345567 0.00291133 -0.0381248 0.0196983 -0.0345967 -0.0456478 0.00909001 0.0208826 0.0359013 0.0290912 -0.0240389 -0.00478246 0.0102 0.0227221 0.0331354 0.0221653 -0.0148191 0.0108893 -0.0431361 -0.0118978 -0.0279168 -0.0172149 0.00324383 -0.0299511 0.0234232 -0.0104378 -0.0503322 0.000948313 0.024021 -0.000378146 0.0118156 -0.0063414 -0.0159047 0.0058875 0.0522132 -0.0103632 -0.0202324 -0.00117758 -0.00434102 -0.0228107 0.00348743 0.038191 -0.00290035 0.0314829 -0.00956536 -0.00682698 0.00515499 0.0345091 0.0435585 -0.0531115 -0.0203883 -0.00858221 -0.0213742 -0.00328526 -0.0276227 -0.00315081 -0.0448548 0.0167166 -0.0383641 0.0213501 0.0474084 -0.020176 -0.0141906 -0.0526967 0.00985977 0.0130925 -0.0303396 0.0364777 -0.026731 -0.0246473 0.0158 -0.0442408 -0.00454503 0.021597 0.0361061 0.0379728 0.014781 0.0240185 0.0129161 0.00227261 -0.00638116 0.0496318 0.0118041 0.0028316 0.0259932 0.0179045 -0.0200248 0.00767313 -0.00640968 -0.0329688 -0.00628086 -0.00567346 0.00884413 0.0690811 0.041669 0.0102703 0.0340069 -0.0377701 0.0371238 -0.0434874 -0.0253047 0.0138255 -0.0167437 0.0369595 -0.043809 -0.0195531 -0.0202766 0.0250159 0.00147281 0.0227941 -0.0191788 0.0116837 -0.00248695 0.0141037 0.0423429 0.0467071 0.0134021 0.0588565 -0.030873 -0.000326369 0.00194542 -0.0280397 0.0700538 0.0441821 -0.0289637 -0.0208298 -0.0352757 -0.00464208 -0.00395673 -0.0412182 -0.0145967 -0.00620454 0.0665427 0.018627 0.0562784 0.0499083 0.0233507 -0.0276021 0.0284582 -0.00155513 -0.00584998 0.0140725 0.0315141 -0.0528963 0.0508667 0.0239279 -0.00221309 -0.0208642 -0.0374393 -0.0153632 -0.00456851 0.0369194 -0.0138928 -0.0220765 -0.00323642 0.0166089 0.00370616 -0.0190708 -0.0278636 0.0170144 -0.0168675 -0.00909567 -0.0180567 0.0200063 -0.0706719 0.0120169 0.00329146 0.012575 -0.00189249 -0.00390198 0.0293635 0.0194304 -0.0121046 0.00220776 0.00225806 0.0294477 -0.0362215 0.00927805 -0.0481869 0.00306492 0.0112843 0.00107265 -0.043616 0.0404246 -0.0674251 0.00798182 -0.0102867 0.0516584 -0.0693441 0.0173575 0.0259222 0.059643 0.0218981 -0.0243404 0.0358982 -0.0306053 0.0315865 -0.0274032 -0.00930381 -0.0537746 -0.0242962 -0.018661 0.0602388 0.0157613 0.0234129 -0.0386532 -0.0227754 0.000939655 -0.000406726 -0.00619457 -0.0441874 -0.0189474 -0.0195275 -0.0133516 -0.00808923 -0.0262746 0.00787239 0.036216 0.041161 0.0345178 -0.00938256 -0.0167905 -0.0193423 0.00952912 0.0339505 0.0372427 -0.013757 -0.00896536 -0.00768262 -0.0326082 -0.0306468 0.0530102 0.0157531 0.0209235 0.0169456 -0.0239034 0.00962354 -0.043835 0.024731 -0.00111196 -0.00169832 0.00125632 0.0323672 0.0336619 -0.00253002 0.0391566 -0.0469843 -0.0589804 -0.0026477 -0.0192583 0.0226259 0.0136336 -0.0454126 0.0377768 -0.00584253 -0.0147768 0.0112476 -0.0533156 0.0046094 -0.00407149 -0.0437597 -0.0094903 -0.0269271 0.0429802 0.0473122 -0.0518677 0.00966059 -0.0175301 -0.041318 0.00655536 -0.0152359 -0.0348971 0.00839215 0.0240809 -0.0422373 -0.0623648 -0.0108501 -0.0199686 0.023487 0.0290166 -0.0376838 -0.00475749 0.000740114 0.00934792 -0.04203 0.0196959 0.00304474 0.00168917 -0.0279754 6.80505e-05 0.0136797 0.017459 0.0359386 -0.0128758 -0.058266 -0.0244447 0.0105016 -0.00795178 -0.0302704 -0.0293276 0.055116 -0.0192873 0.0488329 -0.027599 -0.0211841 -0.000744349 -0.0376946 0.0199496 0.0188074 -0.0133031 -0.0228291 -0.0509312 -0.0389289 -0.0374445 0.0260351 -0.0212115 -0.0204362 -0.014805 -0.00100069 0.0217577 -0.0125367 -0.000434774 -0.0732926 -0.0150774 -0.0170771 -0.036001 -0.0469139 -0.000882648 0.0300718 -0.0516562 -0.0439913 -0.0479714 -0.043515 0.0350861 -0.0197993 -0.0385036 0.0192939 -0.00808598 0.0422256 -0.0170492 -0.0440945 0.0174896 0.0191682 0.0517016 -0.00359418 0.0233079 0.0140221 -0.0362418 -0.016953 -0.0353723 0.0474591 -0.0294161 -0.0531593 -0.031383 -0.0160789 0.00628706 0.0447537 -0.0382387 0.0664635 -0.00464726 -0.0142849 0.041095 0.0156825 0.000540028 -0.0465059 0.0071918 -0.0415895 -0.0458691 0.0441718 0.0425827 -0.0377212 0.0666384 0.0307425 0.0188647 0.0423236 -0.0289783 0.0199549 0.00287703 0.00644484 -0.0104784 0.032623 -0.00270606 -0.0210678 0.0465139 -0.0251262 -0.0405323 -0.000241447 0.0569591 -0.018431 -0.0237018 0.0185185 0.00566928 0.0636491 0.00206106 0.0220382 -0.0346343 0.0406565 0.0034109 -0.00752745 0.00412504 -0.0315709 -0.0341253 -0.0212067 0.015647 -0.0199805 -0.0220657 -0.0138695 -0.0396061 0.0341923 0.0360962 0.0156813 0.0338411 -0.000351793 0.0364466 -0.0224513 -0.0242092 0.019093 0.0059549 -0.0427042 -0.0354891 -0.0375644 0.0380441 0.0276207 0.0214189 0.00185938 0.0114453 -0.00231129 0.0384461 0.0804154 0.0217693 0.0417573 -0.0273861 -0.0569711 0.0414918 0.0136376 0.0337754 -0.0261905 0.025178 0.0123657 0.0383964 0.0176812 0.00587339 -0.0412927 -0.0156342 0.00260432 -0.0157119 -0.00884113 -0.0371605 0.0432877 0.0501141 0.0030032 0.0437115 0.0149494 0.0232193 0.0281147 -0.0117698 -0.015224 0.0344881 0.00799787 0.0113936 0.0358473 -0.0531292 -0.0259322 0.0412869 -0.0114392 0.0229859 -0.0285304 0.0139775 0.0262921 -0.0267377 0.00565739 -0.0313257 -0.00598617 -0.0130168 0.0244947 0.0153747 -0.0220829 -0.0434085 -0.0330823 -0.0230896 0.032691 -0.00182905 0.0192295 0.0345443 0.00983774 -0.0059359 -0.0125588 -0.0105053 0.00728301 -0.00290333 0.0233955 0.0264568 -0.0113252 -0.0161169 -0.009779 -0.00996897 0.0427834 -0.0184014 0.000166612 -0.00184218 -0.00482973 -0.00866311 0.00178748 -0.0106203 -0.0154202 -0.0109251 0.0261862 -0.0390578 -0.00701009 -0.0100437 -0.0265572 0.0122871 0.0177263 0.0517739 -0.00403328 -0.032637 0.0197941 -0.00677582 0.0445832 0.0445165 -0.024408 -0.0390248 -0.0329458 0.0325776 -0.0296028 -0.0354354 0.0379729 0.0361835 0.00635412 -0.0055252 -0.0358284 0.00906222 -0.0181946 0.0154833 -0.02941 -0.0208266 0.00575771 -0.0462039 -0.0279697 0.0110597 0.0256261 -0.0482953 -0.0390152 -0.0119811 -0.031486 0.006514 -0.0292486 0.0057923 -0.000623904 0.0364883 -0.0013268 -0.0484748 0.0158063 -0.00180642 0.0294927 -0.0259209 0.0169153 -0.0596334 -0.0367274 -0.0285278 -0.00836812 0.0314124 0.0317094 0.0348141 0.0429147 0.00535957 7.76483e-05 0.0204887 -0.0165373 -0.00282526 0.0409453 -0.00938128 0.0286902 0.00472967 -0.0355293 -0.00523423 -0.00318651 0.00286539 -0.0143454 0.0305288 0.01727 0.00498826 0.0114702 0.0457227 -0.000605147 0.0402022 0.00691207 0.00988542 -0.0238914 -0.0528164 -0.0386007 -0.0346472 0.0311394 0.0567959 -0.0316222 -0.0160154 -0.0189776 -0.0250105 -0.0148917 0.0435799 0.0238635 0.00749577 -0.0579162 -0.0070021 -0.0440406 0.00431482 0.0489135 0.0348467 0.0416256 0.000326881 -0.00565306 0.0180903 -0.0528846 -0.0385359 -0.013809 0.00387898 0.0145993 -0.00292051 -0.0378346 0.0441237 0.0498367 -0.0329508 -0.0196325 -0.0540191 0.00292641 -0.0380222 0.0526739 -0.00118773 0.00116614 0.0047441 -0.0314849 0.0584979 0.0269375 -0.00530652 -0.00955127 0.0150804 0.0484296 -0.0044113 0.0111874 0.0292662 0.0347445 0.0338073 0.00161795 0.0156095 0.000787808 -0.0473536 -0.0142849 -0.00925649 -0.0235509 0.0187041 -0.0482839 -0.0358495 -0.0209953 -0.0361846 -0.0261356 -0.0336266 0.00425974 0.00606003 -0.0103596 -0.0306532 0.00967336 -0.00591056 -0.0639731 -0.00828291 0.047308 0.0377912 -0.0352772 -0.0136387 0.0276423 0.0585765 -0.0441084 0.00570849 -0.0115106 0.0430181 0.01209 0.0536157 0.00662596 -0.0257575 -0.00219789 0.0079213 -0.00487182 0.0188963 -0.00617853 -0.0565155 0.0339352 0.0295023 -0.000490921 0.0221266 -0.0176305 -0.00328528 -0.0167844 -0.0424301 -0.07098 0.0120106 -0.00196819 0.0515566 -0.000216052 -0.0236171 0.0132272 0.0262084 0.0123016 0.0248897 0.0262756 -0.0373022 -0.0369873 0.0374806 0.00528246 -0.0580337 0.00347848 -0.0147565 -0.0181038 -0.0394574 0.0264745 0.00840841 0.00473814 0.0027724 0.0317722 -0.0269747 -0.0443306 -0.0265061 -0.0195699 0.0294297 0.00237522 -0.00913625 0.0229604 -0.0577982 0.0242146 0.0559963 0.0253234 -0.0248729 -0.0505912 0.0249618 0.022657 -0.0128612 -0.00828486 -0.032228 -0.0115371 -0.000643393 -0.0226442 0.00645403 0.0686739 -0.0125726 -0.015066 -0.0377603 0.0253397 0.0595373 -0.0182916 0.0327425 0.0436961 0.0218606 -0.0510339 0.0435675 -0.00950778 0.00722582 -0.0389409 0.0247815 -0.0214448 -0.0588875 -0.0117997 -0.0557547 -0.0115414 0.0693791 -0.0435492 -0.0081958 0.0206731 -0.0231911 0.0521521 -0.0690738 -0.0236422 0.00606833 0.00581766 -0.00940621 0.0179604 -0.00394042 -0.0326177 -0.0111915 0.021966 -0.0108715 -0.000790152 -0.00921403 -0.00349936 -0.0629155 0.0360015 0.0136095 -0.0859681 0.0440287 -0.018496 0.0222381 0.0361661 -0.0214915 -0.00703569 -0.0407819 -0.0502724 0.0189408 0.0270932 -0.0425888 